{"w1":[[-0.0,0.0,-0.0,-0.0,-0.0,-0.0,-0.0,0.0,-0.0,-0.0,-0.0,0.0,0.0,-0.0,0.0,0.0,-0.0,0.0,0.0,0.0,0.0,-0.0,0.0,0.0,-0.0,0.0,0.0,0.0,0.0,-0.0,0.0,-0.0],[-0.4183,0.338,0.4933,0.9074,0.1666,-0.1608,-0.0021,0.2453,-0.0059,0.3594,-0.6422,-0.438,-0.1699,0.0435,-0.5905,0.2636,-0.351,0.3208,0.0,-0.3998,0.0,-0.0803,-0.0101,-0.2161,0.2229,0.2613,0.0789,0.3678,-0.0443,-0.3347,0.7326,0.3093],[-0.1588,-0.0032,-0.2892,0.2527,-0.0677,0.5748,0.2544,0.208,-0.1889,-0.1772,0.2774,-0.2285,0.047,-0.2884,-0.0401,0.2097,0.2852,0.4381,-0.0,-0.2967,-0.0,-0.2747,0.1255,-0.1451,0.1938,0.0669,-0.007,0.6261,0.1337,-0.3047,0.5424,0.4054],[0.0493,0.2846,0.085,-0.2394,-0.0902,0.4393,-0.0007,0.1027,0.5163,-0.0496,-0.2324,0.405,0.0773,-0.2473,-0.0466,0.1813,0.2008,0.3845,-0.0,0.2215,-0.0,-0.3247,0.4199,-0.0827,0.3145,0.4489,0.1888,-0.119,-0.1474,-0.2572,0.2593,0.3126],[-0.591,0.4292,0.2412,0.0336,-0.0468,0.1745,0.3104,-0.014,0.269,0.3832,-0.2075,0.3135,0.3312,-0.1879,0.0845,0.2748,-0.1037,0.0109,0.0,0.0316,-0.0,-0.2117,0.2311,-0.1905,0.2031,0.3578,0.666,-0.0269,0.2972,0.3012,-0.0437,0.1733],[-0.2582,-0.4191,0.2453,0.2973,-0.0707,0.4432,-0.4846,0.2905,0.3047,0.3624,0.2334,-0.6055,-0.1242,0.4346,0.1002,-0.0721,-0.0439,0.3707,0.0,-0.0153,0.0,-0.2217,0.3685,-0.025,0.0074,0.4028,0.2689,0.3645,-0.1775,-0.2497,-0.1615,0.435],[0.1985,-0.6839,-0.4579,0.2562,0.5861,0.5169,0.0026,0.521,0.4317,-0.1756,-0.3343,-0.3257,0.0176,-0.0624,0.0328,0.2476,-0.4687,0.3472,-0.0,0.2097,-0.0,-0.2018,-0.1426,-0.5094,-0.0634,0.5085,0.2657,0.7952,-0.0081,-0.0385,0.1998,0.2853],[0.0523,-0.0927,0.0375,-0.7355,-0.2898,-0.0102,0.4329,-0.1904,-0.1661,0.0449,-0.1816,0.0125,-0.0217,-0.2273,0.3176,-0.6455,0.3391,-0.0612,0.0,0.076,-0.0,0.4382,-0.3405,0.532,0.6748,0.3241,0.0687,0.2158,0.5389,0.2053,-0.0629,-0.166],[0.0037,0.1706,-0.1932,-0.3734,-0.1502,0.3043,-0.0756,0.3079,0.0052,-0.3858,0.3633,0.173,-0.2715,-0.1719,-0.4105,0.191,0.5075,-0.0433,0.0,0.1976,-0.0,-0.0522,0.1857,0.396,-0.2531,-0.2825,0.1415,-0.1742,0.3027,-0.3908,-0.2637,-0.1864],[-0.4625,0.5112,-0.2545,0.2605,-0.3659,0.0982,0.171,-0.3528,0.0923,0.2015,-0.2011,0.0112,-0.097,-0.6551,0.1873,0.2097,0.0433,0.4038,0.0,0.0773,0.0,-0.423,-0.0287,-0.4893,0.0715,0.3578,0.4722,0.0693,0.3621,-0.3812,0.1715,-0.1606],[-0.1518,0.3254,0.1721,-0.2126,0.2606,0.4237,0.2523,0.2199,0.0338,-0.0074,-0.0718,0.2239,-0.1762,-0.4114,-0.0257,0.0253,0.4027,0.4121,-0.0,-0.1349,0.0,-0.2018,-0.1084,-0.0777,0.231,0.1472,0.3453,0.0619,0.14,-0.105,0.2622,0.3522],[-0.0832,-0.1089,0.0709,-0.004,-0.0144,0.4253,0.216,0.3138,0.3186,0.0819,-0.1483,0.0654,0.2455,-0.0221,0.2503,0.4923,-0.1066,0.0774,-0.0,-0.2124,-0.0,0.0081,-0.0966,-0.1022,0.2545,0.1304,0.5577,0.1249,-0.107,0.1664,0.1512,0.3484],[-0.2296,0.4416,0.0381,0.4337,0.0563,0.394,0.4537,-0.0915,0.2294,0.4212,-0.1785,0.2862,0.27,0.0128,-0.0891,0.1874,-0.3785,0.3963,-0.0,0.1013,0.0,0.2541,0.2059,-0.315,0.5428,0.176,0.1629,0.404,0.3399,0.0074,0.2898,0.1699],[-0.4602,0.0027,0.0775,0.2436,-0.0084,0.3403,-0.1245,-0.1126,-0.0165,0.3591,0.2219,0.3928,0.0825,-0.0701,-0.3204,0.2696,0.1027,-0.4891,-0.0,0.2654,-0.0,0.1311,0.295,0.0079,0.1186,0.2797,0.0195,-0.0418,0.3228,0.0565,0.182,0.099],[-0.5571,-0.2193,0.5038,0.1325,-0.1486,0.3155,-0.1779,0.218,0.1433,0.2834,-0.4104,-0.0364,0.2521,-0.1104,0.3813,-0.083,0.4251,-0.386,-0.0,0.3307,-0.0,-0.2601,-0.1581,0.3781,-0.0283,0.4541,0.3929,0.1146,0.138,0.0591,0.3513,-0.3536],[0.3488,-0.0194,-0.6188,-0.1466,-0.0083,0.3335,0.0446,-0.1046,0.0792,-0.2745,-0.1546,-0.1613,0.1292,-0.4062,0.1471,-0.2488,0.4098,-0.0656,0.0,0.3906,-0.0,0.123,-0.4386,0.2438,0.1212,0.0179,0.43,0.5334,0.5317,0.251,0.3332,-0.0658],[0.8725,-0.4125,0.5893,-0.3284,-0.4993,-0.2671,-0.4387,-0.1639,0.7678,-0.2,0.3676,0.5955,0.1198,0.6898,-0.0932,-0.7489,-0.6204,0.2263,-0.0,0.6354,0.0,-0.1376,0.8713,0.4217,-0.1587,-0.1194,-0.5156,-0.6415,-0.3367,-0.7804,-0.7591,-0.2497],[-0.0558,-0.0709,-0.4897,0.0457,-0.2007,0.3951,-0.0949,-0.1041,-0.0079,0.459,0.472,0.47,-0.1189,-0.2138,0.1004,-0.0052,0.328,-0.1545,-0.0,0.2077,-0.0,-0.0515,0.0963,0.0006,0.3019,-0.3405,-0.067,-0.2249,-0.1903,0.0373,-0.0554,0.183],[-0.1646,-0.0447,-0.1602,-0.2982,0.143,0.5474,0.0634,0.0605,-0.1381,-0.5697,0.237,0.2357,-0.2226,-0.1544,0.0321,0.3884,0.2804,0.0022,0.0,0.1492,0.0,-0.1725,0.0544,0.0806,-0.3532,-0.5699,-0.4481,-0.4038,-0.4115,0.1098,-0.0149,0.0981],[0.3153,-0.2614,-0.3264,-0.1986,0.2969,0.0562,-0.0726,0.1578,0.0412,-0.5006,0.5069,0.4218,-0.2278,0.2177,-0.2469,-0.0487,-0.2029,-0.1171,0.0,0.4264,-0.0,0.2186,0.3042,0.3293,-0.4665,-0.0938,-0.4456,-0.0258,-0.3346,-0.0637,-0.4905,0.0299],[-0.1041,0.185,-0.0116,0.192,-0.8522,0.4124,0.1824,-0.3195,0.3108,0.3601,-0.1972,0.4618,0.3443,0.3756,0.0507,-0.7647,-0.3579,-0.3934,0.0,0.3819,-0.0,0.3291,0.2379,-0.0553,0.0331,0.0203,0.0436,-0.2335,0.1382,-0.6082,-0.4605,0.0198],[-0.4506,0.3428,-0.5006,0.235,-0.5621,0.4211,0.5091,-0.2866,-0.0024,-0.0558,-0.0092,0.5599,0.643,-0.3918,0.4682,0.2071,0.1936,-0.713,0.0,0.4234,-0.0,-0.0221,-0.3269,0.2113,-0.046,-0.0198,0.0845,-0.1319,0.3788,-0.6062,-0.2443,-0.3702],[-0.2549,0.6004,-0.0287,0.5569,-0.6884,0.2007,0.3818,-0.4483,-0.0546,0.2174,-0.0703,0.6673,0.5309,-0.0402,0.1674,-0.243,0.2775,-0.9188,-0.0,0.4298,0.0,0.1243,0.0029,0.3227,0.2758,-0.2859,0.0704,-0.2833,0.4814,-0.0982,-0.0399,-0.1884],[0.417,-0.0398,-0.4239,-0.0384,-0.0789,-0.1327,0.2444,-0.2885,-0.4192,0.071,0.2659,0.1958,0.3239,0.1451,0.4006,-0.1037,0.1654,-0.2794,-0.0,0.4491,-0.0,0.3287,0.0947,0.1884,-0.2718,-0.3222,-0.2687,0.1084,-0.1807,0.2138,0.0814,0.0601],[0.7471,-0.4806,-0.4523,0.0,-0.4324,-0.5575,0.2446,-0.7727,-0.2788,0.0,0.7658,0.5021,0.0,0.4334,-0.0527,-0.574,-0.3794,-0.4258,-0.0,0.3964,0.0,0.9635,-0.0196,0.6053,-0.045,-0.7343,-1.0111,0.0515,-0.0991,0.2442,-0.4583,-0.0273],[0.1572,-0.3451,-0.1141,-0.3747,0.0002,0.3451,-0.0788,0.1668,-0.2345,-0.0513,0.6749,0.3593,-0.159,0.5046,0.4162,0.2047,0.2004,0.0293,-0.0,0.2013,-0.0,-0.3465,-0.1884,0.0266,0.131,-0.0056,-0.2425,-0.018,-0.01,0.0958,-0.1514,0.0554],[0.2401,-0.4084,-0.2638,-0.5491,0.2975,0.3072,-0.1371,-0.0572,-0.3994,-0.4242,0.1556,0.4294,-0.2552,0.1858,0.0834,0.4673,0.0455,0.0924,-0.0,0.4622,-0.0,0.41,-0.3433,-0.1029,-0.4461,-0.1123,-0.0798,0.1565,0.0206,0.1798,-0.156,0.1107],[0.3774,-0.3037,-0.0672,-0.7467,0.1002,0.568,-0.385,-0.0774,0.3,-0.2797,0.1702,0.2533,0.2401,0.4172,-0.3574,-0.0918,-0.026,-0.2105,-0.0,0.1736,-0.0,-0.3375,0.211,0.2058,-0.7273,-0.1236,0.1407,0.1693,0.0953,-0.1811,-0.3215,-0.3071],[0.3306,-0.0361,-0.0166,-0.2334,-0.1309,0.0541,-0.3324,0.0058,0.14,0.3045,0.2109,-0.0534,-0.0145,0.2889,0.0955,-0.2843,-0.0859,0.2894,-0.0,0.2215,0.0,0.0943,0.112,-0.289,0.1417,0.3186,0.4219,0.5783,-0.0081,-0.3401,-0.2804,-0.0357],[-0.0249,0.0523,-0.3843,0.218,0.053,0.284,0.0394,-0.2639,-0.3699,-0.231,0.099,0.265,0.0442,-0.114,0.2704,0.2076,-0.0616,-0.4383,-0.0,0.4027,0.0,0.1211,-0.027,0.3139,-0.4323,0.2695,0.2284,0.1055,0.2594,-0.1133,-0.1207,0.1097],[0.1085,0.0972,-0.5523,-0.1754,-0.3673,0.2156,0.461,-0.5328,-0.3582,-0.6284,0.3674,0.3194,0.6321,-0.2813,0.2335,-0.268,0.0291,-0.6302,0.0,0.3622,-0.0,0.5926,-0.5103,-0.0427,0.4337,-0.1571,0.2841,0.3997,0.2202,0.2172,0.3694,0.2606],[0.271,-0.2325,-0.2697,-0.0,0.1123,-0.2113,0.0074,-0.2079,-0.3991,0.0003,0.5076,0.3169,0.1485,0.3299,0.3224,-0.087,-0.0928,-0.0,-0.0,0.5075,0.0,0.0785,0.1732,0.2567,-0.1243,-0.2908,-0.1065,-0.3899,-0.1823,0.0842,-0.0411,0.0321],[0.0,-0.0,0.0,0.0,0.0,0.0,-0.0,-0.0,0.0,-0.0,-0.0,-0.0,0.0,-0.0,-0.0,-0.0,0.0,0.0,0.0,0.0,0.0,-0.0,0.0,-0.0,0.0,-0.0,0.0,0.0,0.0,-0.0,0.0,-0.0],[0.2457,-0.1474,0.0977,-0.2497,0.601,-0.0253,0.2417,0.1752,-0.1655,-0.6783,0.2359,-0.4115,-0.6492,0.1878,-0.4659,-0.1315,0.0086,0.1034,0.0,-0.2204,0.0,0.2147,-0.1459,0.542,0.3876,-0.33,-0.1207,0.4429,0.0814,0.3539,0.3114,0.0381],[0.4764,-0.3085,0.4284,-0.1061,0.3375,0.0286,-0.1028,0.0188,-0.1046,-0.4504,0.258,-0.148,-0.3042,0.4669,0.5199,0.2334,0.2756,0.0011,-0.0,0.1025,0.0,0.0352,0.0605,0.0027,-0.2222,0.1578,0.0724,0.3674,-0.1777,0.367,-0.1755,-0.035],[0.2166,0.3444,0.565,-0.0177,-0.0804,0.0759,-0.1606,0.2071,0.194,-0.2628,0.1984,0.1126,-0.4115,-0.0503,0.4531,-0.4273,0.432,-0.2163,0.0,0.2268,0.0,-0.2811,0.2622,0.3321,-0.4211,0.2692,0.4649,0.0767,0.4847,-0.046,-0.1805,-0.0495],[0.4926,-0.0212,0.3524,0.3492,-0.4722,0.0857,0.2947,-0.2253,0.3411,0.1391,0.1247,-0.0998,-0.3725,0.4398,-0.1697,-0.4812,-0.1428,-0.0679,-0.0,0.4383,-0.0,0.0745,0.1445,0.2223,0.2935,0.0046,0.2874,0.3869,0.5398,-0.0204,0.0172,0.1655],[0.0358,0.0109,0.0662,-0.3741,0.1643,0.223,0.0005,-0.0886,-0.1676,0.1697,0.1315,0.1445,0.3776,0.5022,-0.1311,-0.3047,-0.0294,-0.0065,-0.0,0.0042,-0.0,0.6407,-0.1076,0.0654,-0.1611,0.4378,0.062,0.3279,-0.0934,0.6152,0.3118,0.0796],[0.1101,-0.1668,-0.2526,-0.9117,0.8125,-0.0944,0.2198,0.0345,-0.51,0.0644,0.3673,-0.3974,0.0906,0.0944,0.2849,0.0133,-0.5884,0.2418,-0.0,-0.1906,0.0,0.5961,-0.1937,-0.1499,0.3577,0.3461,0.1848,0.8836,0.1575,0.7297,0.233,0.0861],[0.0,-0.0,-0.0,0.0,-0.0,-0.0,0.0,0.0,0.0,0.0,-0.0,-0.0,0.0,-0.0,-0.0,-0.0,-0.0,-0.0,-0.0,0.0,-0.0,0.0,0.0,0.0,0.0,-0.0,0.0,-0.0,0.0,0.0,-0.0,-0.0],[0.2097,0.0499,-0.1043,-0.1459,-0.2071,-0.0152,-0.2286,-0.1548,-0.2692,-0.0,0.0932,-0.2095,0.0947,0.2169,-0.0,-0.2346,-0.2545,-0.0741,-0.0,0.2438,-0.0,0.3435,-0.2668,-0.0154,-0.0878,0.0,0.111,0.265,0.0786,0.0859,-0.3184,0.0882],[0.4525,0.3994,-0.2929,0.2025,-0.4592,-0.2139,0.3255,-0.6792,-0.556,-0.3845,0.6325,-0.1614,0.112,0.1305,-0.3386,-0.5495,0.249,-0.3931,0.0,0.3368,0.0,0.7802,0.0764,0.4274,0.016,-0.1463,-0.2518,0.0775,0.4641,0.3056,-0.1377,0.0966],[0.2194,0.0858,0.3092,0.2408,0.5737,-0.5439,0.3827,0.3694,-0.0655,-0.5113,0.2983,0.203,-0.1162,0.1586,-0.6587,-0.2444,0.487,-0.3841,0.0,-0.2511,-0.0,-0.0662,0.4633,0.5226,-0.41,-0.3141,0.0776,-0.2933,0.269,0.2482,-0.0283,0.3346],[0.4875,-0.1117,-0.055,0.7814,-0.4513,-0.2514,0.6102,-0.2919,-0.2537,-0.755,0.6789,-0.3619,-0.4507,0.2438,-0.8173,-0.7774,-0.0155,-0.1914,-0.0,0.1285,0.0,0.3193,0.2245,0.3427,-0.5822,-0.5912,-0.5937,0.4386,0.201,0.1184,0.3885,0.3921],[0.1705,0.0604,-0.0235,-0.1911,-0.2158,-0.1055,0.1369,0.2644,-0.1769,0.0352,0.3077,0.0555,-0.4495,0.2094,-0.8874,-0.2969,0.4196,-0.1346,-0.0,0.3606,-0.0,0.5327,-0.1395,0.3918,0.1244,0.0666,-0.0286,0.2037,0.3225,0.5015,-0.2699,0.1394],[0.019,-0.1312,0.1914,-0.5977,0.4273,-0.0242,0.0585,0.2902,0.3212,0.5409,0.2925,0.2517,0.537,0.1792,-0.2569,0.3206,0.2027,0.1469,-0.0,0.1073,-0.0,0.2931,-0.1737,0.3472,0.2931,-0.0508,0.3248,-0.02,0.2923,0.4832,-0.0864,0.1626],[-0.259,0.2104,0.2228,-0.4169,0.5077,-0.3004,0.2828,0.1286,-0.0016,0.3593,0.0412,-0.1956,-0.005,0.033,0.084,0.2287,-0.1605,-0.0096,0.0,-0.3858,0.0,0.1203,-0.1605,0.3825,0.1737,0.2298,0.1181,0.0433,0.2102,0.5608,0.0505,-0.0462],[-0.2008,-0.0536,0.3288,0.4527,0.3115,-0.1974,0.3898,0.3269,-0.1202,-0.5545,0.079,-0.4093,-0.2331,0.3113,-0.5799,0.2556,0.0871,0.0688,-0.0,-0.5173,-0.0,0.1423,0.0069,0.1959,0.1739,-0.1854,-0.3376,-0.2091,-0.0399,0.2239,0.3532,0.0242],[-0.187,0.2495,-0.0902,0.2477,0.0037,-0.3737,0.0956,-0.1164,0.0702,-0.151,0.1094,-0.0655,-0.1756,0.028,0.0,0.0173,0.0553,0.3315,0.0,-0.145,0.0,0.0233,0.2393,0.0529,0.1363,0.0,0.1364,-0.186,0.1151,-0.0779,0.1642,-0.199],[0.4889,0.2181,-0.3384,0.0312,-0.5754,0.1604,0.2971,-0.8086,-0.4599,0.2829,0.4245,0.0985,0.3504,0.0997,0.4845,-0.5803,0.2983,-0.2094,0.0,0.4156,-0.0,0.9043,0.2093,0.2221,-0.0338,-0.3855,0.2318,0.1506,0.3558,-0.3304,-0.4015,0.0089],[-0.1901,0.0912,0.1551,0.045,0.1137,-0.0574,0.1764,0.3392,0.0084,-0.1289,0.2144,0.3602,0.1627,-0.0942,-0.2459,0.115,0.5744,-0.0399,0.0,-0.1945,0.0,-0.4504,0.3094,0.5458,0.0569,-0.1918,-0.2561,-0.3152,-0.1238,0.0268,0.4347,0.1357],[0.4715,0.2219,0.2802,0.4022,0.0675,0.1029,0.4613,-0.0537,0.0441,-0.3602,0.0013,0.4134,-0.4844,0.2305,-0.1511,0.2136,-0.0166,0.2175,-0.0,-0.1089,0.0,0.2647,-0.1085,0.0353,0.17,-0.1017,-0.1874,0.0238,-0.2049,0.1208,0.4415,0.2537],[0.352,0.1681,-0.2016,0.5829,0.1293,0.3906,-0.0625,0.1462,0.3271,0.4273,0.4645,0.2567,-0.0909,0.0657,-0.3146,0.3192,-0.1022,0.2992,0.0,0.2457,-0.0,0.4656,0.5477,0.0533,0.2808,-0.0876,-0.3744,-0.3036,-0.2278,0.1462,0.0655,0.0279],[-0.7373,0.0843,0.6022,0.2295,0.5579,-0.0149,-0.2341,0.3944,0.2258,0.1786,0.2366,0.162,0.2599,0.0816,0.1331,0.0468,0.2818,0.3182,-0.0,-0.07,-0.0,-0.3062,0.5527,0.0382,-0.0711,-0.2551,-0.1811,-0.6815,-0.0986,-0.0181,0.2771,0.3307],[-0.4309,0.4799,0.3236,0.3374,0.041,-0.3313,-0.0298,0.359,0.2123,0.2779,-0.346,0.3346,0.3283,-0.0092,0.338,-0.4377,0.0412,-0.0439,-0.0,-0.3779,-0.0,-0.7475,0.2427,0.1645,0.098,-0.0066,0.5312,-0.5736,0.5305,0.2293,-0.0068,-0.3038],[0.5336,-0.0452,-0.6205,-0.1947,-0.5194,0.4324,0.1604,-0.4676,0.4187,-0.614,0.1039,0.8563,0.0266,0.2636,0.4413,-0.0901,-0.1234,-0.0434,-0.0,0.6041,-0.0,0.4118,0.249,-0.0971,-0.1975,-0.192,-0.3094,-0.4909,-0.542,-0.5099,-0.4241,0.2502],[-0.2534,0.2935,0.0284,0.1014,0.0,-0.3647,0.021,-0.0412,0.0601,-0.0546,-0.2144,-0.0884,-0.0955,-0.1612,0.0,0.0687,-0.2099,0.035,-0.0,-0.1402,0.0,-0.2085,-0.0602,0.0647,0.2056,-0.0,-0.015,-0.2288,-0.1883,-0.0,0.3103,0.2497],[-0.6831,0.2159,0.3796,1.0179,0.4212,-0.0437,0.0527,0.8125,0.4468,0.3964,-0.3272,-0.7289,-0.4146,-0.2615,-0.9704,0.2145,-0.2639,0.5429,-0.0,-0.721,0.0,-0.8554,-0.0436,-0.5368,0.729,0.5956,0.4022,0.521,0.0891,-0.2189,0.847,0.3676],[0.1089,0.0677,0.1215,0.369,0.3213,0.4034,0.0247,0.2064,0.2834,0.1689,-0.269,-0.4532,-0.0614,-0.0362,0.4092,0.2331,-0.0399,0.563,-0.0,-0.0763,0.0,-0.1325,-0.1639,-0.3078,0.3324,0.3268,0.2405,0.5813,-0.1875,-0.485,0.1814,0.2552],[0.1794,0.3603,0.0387,-0.1396,0.4631,0.198,-0.0876,0.4307,0.3208,-0.0187,0.1372,0.4165,-0.0019,-0.1785,0.1625,0.2413,0.2562,0.1883,0.0,-0.0451,0.0,-0.2452,0.2682,0.1389,0.368,-0.0999,0.0096,0.0326,-0.0816,-0.015,0.0567,0.1861],[0.0619,-0.0706,0.2769,0.0342,0.2809,-0.06,-0.0135,0.2182,0.2916,-0.075,0.4159,0.2663,0.1457,0.1854,0.1614,0.3157,0.0982,0.2233,-0.0,-0.1691,-0.0,-0.2134,0.443,0.3701,0.0692,-0.1521,-0.0109,-0.4507,-0.0453,0.0897,-0.3,-0.107],[-0.1534,0.1983,0.4534,0.5454,0.2824,-0.0644,-0.1134,0.3172,0.0321,0.1285,0.3868,0.208,0.1951,0.2876,0.0139,-0.091,-0.1106,0.0587,-0.0,0.0292,0.0,-0.1943,0.1546,0.2823,-0.0903,-0.1719,0.0159,-0.2031,-0.4126,0.1689,0.1383,-0.0238],[-0.1391,0.0082,0.2953,0.5588,-0.1346,0.0956,0.2683,-0.4537,0.2914,-0.1413,0.1684,0.6246,0.2201,-0.0754,0.3849,-0.7661,-0.3269,-0.0768,0.0,-0.246,0.0,0.4071,0.2206,0.1534,0.0275,-0.3345,-0.5363,-0.8983,-0.0749,-0.1749,0.1682,-0.1021],[0.3648,0.0809,-0.4959,0.2056,-0.1227,0.4202,0.4376,-0.4297,0.2244,-0.4577,0.3767,0.7037,-0.382,0.203,-0.7568,-0.1974,-0.257,0.1237,0.0,0.0596,-0.0,0.1039,0.1185,-0.0457,0.2545,-0.4402,-0.4061,-0.5232,-0.0452,-0.2197,-0.1549,0.4004]],"b1":[-0.1158,-0.0578,0.0601,-0.0278,-0.1057,0.4743,0.4548,0.1179,-0.025,0.031,0.3508,0.2207,-0.1882,-0.01,0.132,0.2009,0.0227,0.1726,-0.1493,-0.0357,-0.1676,0.0077,0.1726,0.2633,-0.0773,0.1921,0.4372,0.296,0.163,0.145,0.4506,0.2386],"w2":[[-0.9589,-0.582,-0.5684,0.6839,-0.6401,0.6069,-0.2551,0.0,-0.121,0.1269,-0.3229,1.0104,0.1401,-0.6274,0.0,0.2609],[0.2948,0.4418,0.5806,-0.2811,0.3685,-0.0908,-0.2844,0.0229,-0.1963,-0.1341,0.7036,0.3399,-0.2863,0.5892,-0.0,-0.1655],[-0.0319,0.1435,0.5525,-0.6075,-0.0231,0.3371,-0.2034,0.0786,0.6873,0.2934,0.3605,-0.1505,0.748,0.3743,0.0,-0.706],[0.8591,-0.1823,-0.1809,-0.8181,-0.8991,-0.019,0.1291,0.0741,0.2061,0.1546,0.2741,1.1226,1.3057,-0.4518,-0.0,-0.9777],[0.3043,0.3377,-0.5946,-0.066,0.2081,0.6924,-0.1583,-0.0,0.4601,0.5634,-0.7562,0.1793,-0.0574,-0.1702,0.0,0.1932],[0.2999,0.3094,-0.0545,0.5697,0.1066,0.6214,0.0499,-0.1315,-0.1581,-0.2214,0.3754,-0.2473,-0.2512,0.1188,-0.0,0.4596],[0.0774,0.2067,0.3599,0.2205,-0.1353,-0.5497,-0.367,-0.0448,-0.214,0.4639,0.3005,0.4884,0.0836,0.4146,-0.0,0.5949],[0.5262,0.2486,-0.2998,-0.0222,-0.0314,0.5676,0.0109,-0.0096,0.8888,0.0201,-0.1334,-0.5357,0.6298,0.2409,0.0,-0.01],[0.0295,0.4995,0.4919,0.2558,-0.2239,0.6329,0.0893,-0.0453,0.458,0.0574,0.6289,-0.482,0.2766,-0.1026,-0.0,-0.4609],[-1.1603,0.2547,0.6002,-0.4316,-0.8616,0.6918,0.1044,-0.1179,0.4058,0.9614,0.0115,0.6231,0.2437,-0.9906,-0.0,-0.9115],[0.3547,-0.564,-0.1646,0.7732,0.3174,0.1421,-0.2876,0.0548,0.0874,-0.2631,-0.4051,0.71,0.2165,0.0162,0.0,-0.0102],[0.1123,-0.0904,0.1497,0.337,0.4455,0.1578,0.2448,-0.0114,-0.1352,0.3536,0.4322,0.1751,-0.438,0.145,-0.0,-0.1157],[-0.1802,0.161,0.4798,0.3857,0.3819,0.4679,0.0179,-0.0985,-0.722,0.1833,0.1491,-0.279,-0.6146,-0.4784,0.0,-0.3361],[-0.4132,-0.5815,0.1206,0.213,-0.2305,0.4255,-0.3784,-0.0,-0.1596,-0.179,-0.5644,0.2386,0.4501,-0.2056,-0.0,-0.4042],[-0.1732,0.6904,-0.5744,0.3826,0.3306,1.006,-0.0259,0.0,-1.255,-0.1065,0.5222,-0.8832,-1.2224,-0.8273,-0.0,0.4645],[0.8004,0.7682,-0.2743,-0.0447,0.6487,0.322,0.1742,-0.0,0.1033,-0.0388,-0.6476,-0.403,-0.1742,0.4742,-0.0,0.3445],[0.218,-0.1389,-0.1281,0.2089,0.5641,-0.5164,-0.3258,-0.029,0.6326,0.2987,0.2969,-0.1269,0.2667,-0.148,0.0,0.4197],[0.5195,0.7568,-0.2456,-0.4801,-0.2195,0.106,-0.0032,-0.0621,-0.1096,-0.1287,0.0669,0.0609,0.5426,-0.8534,-0.0,-0.1582],[-0.0,0.0,0.0,0.0,-0.0,0.0,0.0,0.0,-0.0,0.0,-0.0,0.0,0.0,0.0,0.0,0.0],[-0.4268,-0.1105,0.1195,0.4668,0.3283,0.1789,-0.1291,-0.093,-0.3086,-0.5108,0.3886,0.065,-0.4602,-0.3847,-0.0,0.2571],[0.0,-0.0,-0.0,0.0,0.0,0.0,-0.0,-0.0,0.0,0.0,-0.0,-0.0,0.0,-0.0,-0.0,0.0],[-0.3167,-0.2755,-0.625,0.267,-0.9694,-0.3718,0.1357,-0.0,-0.5809,0.0489,-0.7297,1.0066,-0.297,0.0911,0.0,0.7261],[0.5193,-0.3093,0.4996,0.1292,0.002,0.1252,-0.0081,-0.1055,0.2932,0.2427,0.4555,0.2317,0.2357,-0.2741,-0.0,-0.4833],[-0.13,-0.519,0.127,0.6475,0.3854,-0.3368,-0.0162,-0.0973,0.2529,0.3603,-0.0326,0.1761,0.5677,0.4596,-0.0,-0.0688],[0.0926,0.4513,0.2983,-0.9409,-0.5927,0.4092,-0.2096,0.1188,0.3906,0.8669,-0.1056,0.79,-0.3551,0.356,-0.0,0.0635],[-0.5038,0.5947,0.6911,-0.5804,-0.0604,0.7226,-0.0558,0.0989,-0.2438,-0.4194,-0.0716,-0.4256,0.3429,0.0039,0.0,0.2898],[-0.2059,0.6435,0.7232,-0.3418,0.5487,0.4675,0.0163,0.1479,-0.0955,-0.5516,0.4647,-0.3418,0.5186,0.4779,-0.0,0.5225],[-0.5131,0.4614,0.0047,0.1283,-0.5574,0.3782,0.0673,0.0355,-0.206,-0.6768,-0.6439,0.1735,0.6538,-0.213,-0.0,0.8602],[-0.7075,0.3204,0.642,0.2208,0.1005,-0.6071,0.1321,0.0801,0.2584,-0.661,0.402,0.2629,0.2873,0.6713,0.0,0.3449],[-0.2582,-0.0013,-0.6622,-0.1071,0.1142,-0.6973,-0.1181,-0.0306,0.5317,0.5969,-0.703,0.863,0.2469,0.2059,-0.0,0.3779],[0.6892,0.582,-0.3066,-0.5871,-0.4052,-0.5878,-0.2259,-0.0518,0.4412,0.5644,-0.1016,0.6129,0.233,0.3696,-0.0,0.4823],[0.5574,0.2074,0.0441,0.2292,-0.3325,0.338,-0.0243,-0.0143,0.1518,0.1333,-0.2013,0.2535,0.1049,0.1021,0.0,0.3739]],"b2":[0.1845,0.0426,-0.1809,0.3911,0.0478,-0.0093,-0.1792,-0.2729,0.048,-0.2901,0.2784,-0.0605,-0.2288,0.1097,-0.3204,-0.0274],"w3":[[0.4681,-0.5325,0.8792,-0.8306,-0.8059,0.6553,-0.4157,-0.8416,0.1394,-0.3891],[0.2965,-0.8696,0.2647,0.6728,-0.1801,0.7407,-0.6177,0.7205,-0.6389,0.3621],[-0.4358,0.1792,-0.0586,0.5355,-0.8872,-0.7904,-0.1931,0.2861,0.4304,0.3767],[0.1775,0.6342,-0.7389,-0.8353,0.6986,-0.2098,-0.3728,-0.3463,0.4078,0.1078],[0.3986,-0.755,-1.0546,-0.4471,-0.3608,-0.3892,0.2681,-0.8527,0.8645,0.875],[-0.7206,0.5345,-0.5501,0.6049,-0.5678,0.5068,-0.0061,-0.458,-0.6342,0.3175],[0.2,-0.1757,0.0959,-0.073,0.1709,-0.3044,0.3315,-0.2196,-0.1436,-0.391],[-0.0,0.0,-0.0,0.0,-0.0,-0.0,0.0,-0.0,-0.0,0.0],[-0.01,-0.1132,0.0708,0.2906,-0.5414,0.0691,0.7418,-0.4968,0.5253,-0.7699],[0.6064,0.2153,0.1916,0.2754,-0.0639,-0.8731,0.5559,-0.0783,-1.4558,-0.2513],[-0.7668,0.1617,0.5919,0.1729,-0.2103,-0.6228,-0.9555,-0.307,0.3442,0.4981],[0.036,0.0351,0.5397,-0.2381,0.7086,-0.4836,0.2115,0.0746,-0.9782,-1.2707],[-0.7927,0.2181,0.1947,0.2045,-0.3166,0.4292,0.738,0.4404,0.4978,-0.7368],[0.7925,-1.291,-0.1291,-0.2556,-0.3602,-0.8347,0.3044,0.5815,0.338,-0.1538],[0.0,-0.0,-0.0,0.0,-0.0,0.0,0.0,-0.0,-0.0,0.0],[0.1718,-0.6655,-0.8861,-0.8895,0.4824,0.2145,-0.4978,0.8392,-0.2589,-0.0722]],"b3":[-0.1715,0.3385,-0.4991,-0.3113,0.5209,-0.1166,0.1426,-0.1827,-0.4014,-0.3855]}